{{-0.08379953, 0.6436007, -0.06407543, 0.44367146, 0.25229865, 0.46212956, 0.005482368, -0.031298783, -0.23670143, -0.09094672, -0.038653947, 0.010105683, 0.37176186, 0.4657757, 0.26699743, -0.42646426, -0.5148267, -0.1464246, -0.35166726, 0.029875945, 0.13796167, 0.3505216, 0.29005373, 0.12789594, 0.48693833, -0.25670427, 0.3422269, -0.022526266, -0.12249168, -0.44647622, 0.32824495, -0.097106114}, 
{-0.10837627, 0.19859925, -0.31652668, 0.31914994, 0.48430434, 0.38965297, -0.14475241, 0.021188695, -0.22203529, 0.16465986, -0.08024201, 0.27674663, 0.39480072, 0.13890783, 0.23859413, -0.26692665, -0.14107814, -0.1108471, -0.15162878, 0.14105447, 0.06113417, 0.26771024, 0.13655728, 0.2826074, 0.51272976, -0.14908457, 0.09265774, -0.24207121, -0.031750448, -0.5744994, 0.1159653, -0.2672643}, 
{-0.3047447, 0.22344634, -0.17906147, 0.41220623, 0.0825901, 0.3522823, -0.04124429, -0.17294352, -0.2895521, 0.105603054, 0.18610933, 0.17077014, 0.09367846, 0.32141966, -0.09464712, -0.60515755, -0.33081794, -0.23831023, -0.2572503, 0.38427117, -0.41186446, 0.08510367, -0.13750637, 0.15424319, 0.3522108, -0.17907389, 0.023577252, -0.09301307, -0.019435558, -0.68927854, 0.492396, -0.3839402}, 
{-0.3246599, -0.15387458, -0.17609267, 0.28820837, 0.08416189, 0.7547641, -0.578224, -0.15492864, 0.24812216, 0.7187324, 0.6142258, 0.51585066, -0.63695693, 0.7340938, -3.2655968e-05, -0.2909201, 0.78782415, -0.26426688, 0.46820527, -0.05810357, -0.5867308, 0.0851304, -0.716947, 0.16903654, 0.3808377, -0.58438843, 0.21592495, 0.009600773, -0.28322205, -0.41356033, 0.44112974, -0.4729375}, 
{-0.30023083, 0.2797431, 0.14981613, 0.071412995, -0.1621519, 0.29204667, -0.6215571, -0.23724791, 0.11138068, 0.616357, 0.36284998, 0.27688268, -0.30480155, 0.69482523, -0.2287761, -0.54458195, 0.2959931, -0.22043754, 0.25229672, -0.017829929, -0.5223079, 0.24553815, -1.0112966, 0.14200693, 0.17648578, -0.5300018, 0.5009738, 0.23171695, -0.2044425, 0.06786729, 0.70115286, -0.6667001}, 
{-0.08701426, 0.39435396, 0.34299004, 0.14734675, 0.08310203, 0.2157873, -0.33060795, -0.23962006, 0.020258231, 0.27059996, 0.27202988, 0.35582143, 0.106614724, 0.44433403, -0.05882649, -0.7310874, 0.5306491, 0.33119282, -0.19148505, 0.02957049, -0.13981773, 0.44012043, -0.5789013, 0.2527559, 0.46861532, -0.6646754, 0.26718748, 0.32486498, -0.1788385, 0.060141083, 0.5638422, -0.5015349}, 
{0.008096217, -0.0067973854, -0.099601366, 0.36862552, 0.03915225, 0.24184956, -0.24330112, 0.23037177, 0.43602338, -0.11980031, 0.37125835, 0.43767285, -0.21355252, 0.25143254, 0.20149086, -0.023241753, 0.46233046, 0.37680405, 0.47624964, -0.044602767, -0.14937603, -0.04607848, -0.4574148, 0.31804353, 0.57550544, -0.08422948, -0.050097644, 0.26651537, -0.4528949, 0.23753597, 0.09701792, -0.2713585}, 
{0.027544746, -0.327374, -0.041801505, 0.4441715, 0.080403104, 0.5233375, -0.08400985, 0.39376774, 0.29092208, 0.056843564, 0.18251677, 0.41738603, -0.2692711, 0.57453775, 0.6955203, 0.04686314, 0.397077, 0.4804615, 0.46817964, -0.02268798, -0.29353097, -0.116055764, -0.11757334, 0.017178392, 0.81359434, -0.13037837, -0.26394317, 0.14413077, -0.09477348, -0.117183566, 0.11383629, 0.032932125}, 
{0.5227584, 0.09935606, -0.29606444, 0.6091483, 0.26758194, 0.21574666, -0.14828217, 0.75164, 0.4353014, 0.14227471, 0.590737, 0.59553087, 0.1460836, 0.53645897, 0.5012105, 0.23013422, 0.6454987, 0.5088695, 0.40151367, -0.24239363, 0.24614899, -0.22059695, -0.28753692, 0.31444278, 0.5690736, 0.020814145, -0.258652, -0.092428595, -0.40970075, 0.09588711, -0.5373765, 0.113138005}, 
{0.4761825, -0.5502655, -0.32296908, -0.19104427, 0.26544055, -0.32278308, -0.36748722, 0.5824202, 0.44957474, -0.23725475, 0.030722925, 0.50674134, 0.386839, 0.042440448, 0.103895225, 0.5646223, 0.57509047, 0.82542783, 0.40804875, -0.41531304, 0.5034028, -0.5408636, -0.1586999, -0.31739753, 0.19939235, 0.20808262, -0.023140281, -0.4418506, -0.58730435, 0.5506022, -0.095616, 0.42867598}, 
{0.05718439, 0.558935, -0.07730001, 0.27509317, 0.4131975, 0.15524325, 0.2801463, 0.0331378, -0.4633759, 0.13478166, -0.019629944, -0.22148058, 0.41647503, 0.5360004, 0.23900943, -0.64412016, -0.38777465, -0.15752949, -0.3406358, 0.2761543, 0.27179453, 0.3485562, 0.24250054, 0.28588918, 0.71772563, -0.35851625, 0.38782388, 0.13014376, 0.025408015, -0.54846245, 0.13718499, -0.5014663}, 
{0.00032066926, 0.6084694, 0.1859627, 0.15956448, 0.2588336, 0.47768697, 0.31279653, -0.09176387, -0.3487734, -0.065641925, 0.080896355, -0.1934601, -0.028925465, 0.3395629, 0.053806543, -0.5659253, -0.4154312, 0.05651334, -0.53003496, 0.35751817, 0.38426304, 0.24116673, 0.051250726, -0.08615965, -0.07341806, -0.1313229, 0.12163335, 0.053502716, 0.6177904, -0.5639533, -0.03843906, -0.37602377}, 
{-0.2706609, 0.46058336, -0.022441562, 0.32291007, 0.17147382, 0.20314622, 0.1439553, -0.13214575, -0.3361082, 0.17607537, 0.06900486, -0.07483324, 0.023988485, 0.24805969, 0.05825823, -0.17162028, -0.12942886, 0.20169187, -0.15193786, 0.36495316, 0.015115422, 0.1512076, -0.30242825, -0.02287589, 0.0093889935, -0.2068819, 0.038107596, -0.21018985, 0.10980868, -0.26489997, 0.12276249, -0.31564423}, 
{-0.33268148, 0.033489265, 0.14384703, 0.008841919, 0.35836112, 0.28307274, -0.033783145, -0.030450396, -0.26496658, -0.022998432, 0.007073394, 0.22085783, -0.058255557, -0.23637632, -0.34798017, 0.16569085, -0.13284893, 0.29592997, -0.03925839, 0.29591188, -0.25717577, 0.26064423, -0.7495887, 0.012390407, -0.17882642, 0.02570523, 0.11469572, -0.033432614, 0.3563685, -0.1720192, 0.10192785, -0.04861944}, 
{-0.4159176, 0.23850513, 0.20082778, -0.018810112, 0.5947533, 0.053875647, 0.07316699, 0.03572266, -0.20604569, 0.23751423, -0.17731698, 0.09728735, 0.28387842, -0.35563293, -0.86640304, 0.09237044, 0.170328, -0.00022436302, 0.34589326, 0.13422744, -0.026154976, 0.031818397, -0.48351994, 0.0012452946, -0.3901606, 0.20372123, 0.19061346, 0.30648142, 0.29938722, 0.32995883, 0.35089743, 0.11563067}, 
{-0.25680047, 0.46405122, 0.2764487, 0.1917226, 0.17594114, 0.022863334, -0.2668512, 0.1729039, 0.17565347, 0.2909878, 0.00016467433, 0.06395609, 0.30566168, -0.15892237, -0.35487244, 0.2188934, 0.11380824, 0.034781322, 0.25450063, 0.1190724, 0.07032196, 0.025529752, -0.37359405, 0.21774122, -0.059548363, 0.13861811, 0.20757562, 0.46059585, 0.22996871, 0.44046652, 0.50994015, 0.083503895}, 
{-0.03224018, 0.48242208, -0.07163129, 0.19750716, -0.071375795, 0.39474082, -0.014692796, 0.10636888, 0.18328138, 0.20682196, 0.19483945, 0.3080819, 0.08882492, 0.030712739, -0.3215684, 0.56524307, 0.30043507, 0.3013208, 0.29891732, -0.01950551, 0.07615168, -0.06790788, -0.54011136, 0.013859549, -0.050705276, -0.08099772, 0.31293046, 0.29914862, -0.18946727, 0.57772154, 0.25265363, -0.05137667}, 
{-0.27701053, 0.04064138, -0.06660235, 0.22730842, -0.21073054, 0.076034136, -0.16367015, 0.20385575, 0.21667531, 0.1082768, 0.14170936, 0.32743102, 0.14968108, 0.010461941, 0.28932047, -0.23361853, 0.4700039, 0.46102175, 0.5198678, 0.12341992, -0.08530072, 0.0014524402, -0.38972035, -0.028460596, 0.1769864, 0.036334213, 0.25787783, -0.02305333, -0.21818092, 0.14045279, -0.4783674, -0.3689537}, 
{0.07084329, -0.17991827, -0.15442754, 0.1382697, -0.15988785, 0.049809754, -0.37089497, 0.20893657, 0.18297447, 0.15626311, 0.2579667, 0.30925307, -0.20790957, 0.3567214, 0.47088793, 0.15352114, 0.6518642, 0.47905818, 0.19643773, -0.16889407, 0.11282036, -0.20690352, -0.12264424, -0.38952968, 0.23878819, 0.004773347, -0.02279492, -0.33115843, -0.55256104, -0.08573457, -0.3486317, -0.17032804}, 
{0.41056803, -0.3538039, -0.57302594, -0.144434, 0.3009299, -0.21689713, 0.04743992, 0.25340357, 0.5357276, 0.092064, -0.23427664, 0.44675404, 0.11887975, -0.35009655, -0.25119486, 0.27816075, 0.11857181, 0.6716022, 0.20034078, -0.038551793, 0.10299055, -0.008243901, -0.21195607, -0.35152864, 0.027346145, 0.39297202, 0.3347247, -0.24550891, -0.6145575, 0.45655197, -0.24780723, 0.5176018}, 
{-0.08586059, 0.39023554, -0.15398228, 0.146811, 0.2687191, 0.3172729, 0.21498013, 0.03329573, -0.5904176, 0.0547298, -0.15050626, 0.029867213, 0.43349096, 0.42175388, 0.028923614, -0.6432184, -0.5288038, -0.02844749, -0.561092, 0.026405739, -0.07415889, 0.13729541, 0.4771589, 0.3295531, 0.7964167, -0.0396569, 0.22681838, 0.1934067, -0.33910364, -0.52846575, 0.5184765, -0.38519582}, 
{-0.0097025735, 0.37044108, 0.04226141, 0.14903693, 0.046423078, 0.297557, 0.15962458, -0.14381412, -0.60449, 0.48461348, -0.23709057, -0.07155549, 0.14110169, 0.15428443, 0.069391236, -0.30797684, -0.34497443, -0.08689336, -0.5660666, 0.31788188, 0.36294344, 0.37035823, 0.12774108, 0.34798446, 0.48888335, -0.33223343, 0.43177703, -0.16686998, 0.30671364, -0.4805369, 0.25050053, -0.47489214}, 
{-0.018170375, 0.37454474, -0.13975476, 0.30487588, 0.4172384, 0.24237862, -0.15350465, 0.14564185, -0.054016784, -0.04436055, -0.07380177, 0.010565036, 0.3872136, 0.02750861, 0.1126673, -0.00030019367, -0.08177532, 0.09526556, -0.39986712, -0.11335202, 0.062286537, 0.22574003, 0.19898328, 0.10908494, 0.52360237, 0.27245983, 0.12126849, 0.014275888, 0.20386079, -0.21043374, 0.058727227, 0.046762776}, 
{0.078759596, 0.14533827, -0.07147301, 0.16591193, 0.32988963, 0.31766117, 0.21170238, 0.092679314, 0.02138507, -0.11271604, -0.36853325, 0.23394601, 0.37167072, -0.10789076, -0.35808805, 0.0021781505, -0.040261395, 0.29621547, 0.20739704, 0.19662248, -0.011146669, 0.2013124, 0.090250194, 0.43348444, 0.27558133, 0.36853194, -0.07463355, 0.115312435, 0.24114752, -0.47976792, -0.11948747, 0.15093067}, 
{0.07676101, -0.27267146, 0.34537107, 0.08276977, 0.25537452, -0.07367983, 0.1592532, -0.06198673, 0.0005731981, -0.1781885, -0.43958482, -0.0007248835, 0.099925734, -0.10389898, -0.46808267, 0.24642648, 0.095452115, 0.25928405, 0.2663015, 0.33781418, 0.07710178, 0.19555013, 0.26011783, 0.24040273, -0.037839547, -0.004856267, 0.20105827, 0.19655696, 0.15123236, -0.1768302, 0.06135819, 0.44210103}, 
{0.035187744, -0.21074149, 0.41126186, -0.05854621, 0.10075677, -0.008273276, 0.46267104, -0.2870625, -0.28202996, 0.1087729, -0.009885098, -0.19695264, 0.12544796, -0.0935083, 0.30557445, 0.5233806, 0.30679822, 0.25965932, 0.45773682, 0.21519917, -0.1393078, 0.32684752, 0.44976732, 0.11087123, -0.53775215, 0.17434546, -0.022752648, 0.42597914, 0.035304032, 0.20570597, -0.104611054, 0.5034524}, 
{0.2287249, 0.3017892, 0.29562783, 0.042364325, 0.31660965, 0.007935623, 0.273747, -0.024748882, 0.04928291, 0.07080166, -0.19850013, -0.10149149, -0.08748297, -0.29258, 0.3757838, 0.5511004, -0.0020905896, 0.52119046, 0.5130871, 0.37793422, -0.038375884, 0.089361206, 0.30952394, 0.31711763, 0.14012873, 0.2032197, -0.33945125, 0.5760098, -0.042631045, 0.012731451, -0.4279243, 0.31314155}, 
{0.2908766, 0.34881952, 0.28184906, 0.10109156, -0.025453635, -0.05330316, 0.1579204, 0.25337148, 0.28335428, 0.21413279, -0.2288024, -0.19829927, -0.045803696, -0.2770854, 0.3058754, 0.35559577, 0.072763175, 0.40463543, 0.37223178, 0.05127228, 0.1787556, -0.008501776, 0.23209096, 0.38678926, 0.36677876, -0.12885877, -0.14082237, 0.20137367, -0.31268108, 0.12534714, -0.14683, 0.028193656}, 
{0.11849602, 0.005239795, -0.24313048, 0.13189237, 0.07443777, -0.12343478, -0.14343776, 0.23681939, 0.35754004, 0.059479456, 0.1392543, 0.39199752, 0.07288118, 0.08883089, 0.1603111, 0.33305502, 0.4048945, 0.08363511, 0.27248815, -0.13033341, 0.1867766, -0.14316767, 0.044612642, 0.12221671, 0.35570803, 0.04525602, -0.036038496, 0.14963986, -0.5157334, 0.35194698, -0.07514962, -0.10380558}, 
{0.47139326, -0.19316003, -0.58225304, -0.26985672, 0.41682005, -0.35775134, -0.09232516, 0.47303373, 0.4588459, 0.0978061, 0.1272078, 0.5960881, 0.20531695, -0.04103196, -0.2727736, 0.33581036, 0.6560754, 1.0239664, 0.36633673, 0.048462912, 0.36988255, 0.04782088, 0.22705545, -0.32194707, -0.1989935, 0.3923335, 0.13997579, -0.76153404, 0.039451443, 0.48638132, -0.37047148, 0.44008374}, 
{-0.66667867, 0.6499581, 0.5658575, -0.41878375, 0.39511085, -0.44335514, 0.676715, -0.3085015, -0.42942166, 0.26673564, -0.48983112, 0.29788503, 0.50396466, -0.34269974, -0.43844083, -0.47091144, -0.7720003, -0.2741719, -0.69957095, 0.18882552, 0.11086385, 0.61807823, 0.09847924, 0.3261753, 0.12445985, -0.5442941, 0.7547681, 0.8345356, -0.060735118, -0.4780505, 0.2056673, -0.61669385}, 
{-0.13750641, 0.24829444, -0.01963462, -0.18537803, 0.20279318, 0.21181221, 0.19491833, -0.069650285, -0.48758352, 0.1657396, -0.2718241, 0.085669726, 0.48514852, -0.0705786, -0.15862308, -0.41106996, -0.32665828, -0.019321369, -0.26535466, -0.099805474, 0.071433425, 0.44435626, 0.11141503, 0.27532345, 0.25456846, -0.18677092, 0.15027045, -0.04555392, 0.060375378, -0.45797816, 0.3664777, -0.23850416}, 
{0.062352657, 0.05076036, -0.09918783, -0.24286905, 0.3572028, 0.07939021, 0.115703076, 0.08984958, 0.12453785, 0.017805597, -0.3823905, 0.07776989, 0.062544845, -0.3801043, -0.30992126, -0.5163535, -0.026257671, -0.043726433, -0.28485784, 0.1489821, -0.16667718, -0.12999344, 0.27984887, 0.26613432, 0.11552407, 0.21660452, 0.043279953, -0.13119312, 0.06334949, 0.07887498, -0.020336464, 0.09478963}, 
{0.18065853, -0.31101477, -0.31234488, -0.18255827, 0.15222715, -0.23594733, -0.09239503, 0.1912204, 0.13735479, -0.117480725, -0.24844423, 0.30685082, -0.00041231443, -0.31361708, -0.39709422, -0.07970489, 0.2848417, 0.2721326, 0.02901902, 0.08157519, -0.260346, 0.089210615, 0.4336177, 0.17433506, 0.19008219, 0.2784922, -0.0076897345, -0.30048215, -0.14182809, 0.026728729, 0.35185727, 0.3938262}, 
{-0.011042967, -0.5364422, -0.2183876, -0.099778414, 0.1602806, -0.19066305, 0.106479935, 0.26202482, 0.10334348, -0.023375576, -0.16568097, -0.15602618, 0.015781224, 0.022470366, 0.015944961, 0.01182662, 0.30113238, 0.23806222, 0.17684843, 0.22679058, 0.086758286, 0.20270158, 0.26952246, 0.3464134, 0.09818127, 0.28706473, -0.23394722, -0.6591199, -0.007406, 0.38710034, 0.692754, 0.111402266}, 
{-0.4457929, 0.026384633, 0.378813, -0.099859275, 0.38202295, -0.36667088, 0.5653256, 0.065748245, 0.07537421, -0.2636183, -0.05899538, -0.1852194, 0.123871885, 0.1399857, 0.5661255, 0.01994419, -0.21335961, -0.5505596, -0.43175283, 0.4249316, 0.23438402, 0.37288684, 0.11798009, 0.34130803, -0.031508353, -0.0430514, 0.10713025, 0.03428916, 0.25200602, 0.12254667, 0.204381, 0.023942156}, 
{-0.009759943, 0.3250081, 0.16865982, 0.4690815, 0.25423002, -0.0606999, 0.30375376, 0.32557586, -0.17234157, 0.05431723, -0.2482549, 0.106684916, 0.2754221, -0.09218076, 0.06742663, 0.68015486, -0.15399724, -0.7252369, 0.1471056, 0.27149826, 0.25962502, 0.27943474, 0.2198655, 0.061287407, 0.3765303, 0.056449365, -0.33450064, 0.76879627, -0.01016334, -0.14277911, -0.32147413, -0.06542922}, 
{0.24125932, 0.1310117, 0.25840166, 0.15181895, 0.32400766, 0.14116591, 0.09787551, 0.0763273, -0.10630287, 0.29639786, -0.09230756, -0.3841465, 0.3470606, -0.35730174, -0.15585968, 0.36287102, -0.40053988, -0.8301044, 0.16676769, 0.1936912, 0.12515773, -0.009095801, 0.0169763, 0.21823579, 0.43459314, 0.21188919, 0.02605964, 0.24725828, 0.13309109, 0.116758436, 0.09679943, 0.34715304}, 
{0.24190332, -0.71617025, -0.22113363, 0.03687061, 0.16927712, -0.5993155, -0.28415686, 0.30516535, 0.45293987, -0.3000446, -0.09120885, -0.30394918, 0.53769815, -0.37669128, 0.11643588, 0.366025, -0.3866978, -0.9064701, 0.36932865, -0.28031984, 0.26692522, -0.3243901, 0.2767717, -0.073822364, 0.31470022, 0.25134346, -0.45992908, 0.07368543, -0.20085832, 0.50580794, 0.077530764, 0.522752}, 
{0.21453194, -0.39641005, -0.83852834, -0.40476775, 0.6212632, -0.55606, -0.6700908, 0.7640168, 0.80298334, -0.71609735, -0.17810857, 0.19451503, 0.6032946, -0.512527, -0.00054816244, 0.40773857, -0.20442525, -0.07572964, 0.045732185, -0.3440802, 0.9091643, -0.63500196, 0.26624554, -0.39842084, -0.2974009, 0.5250925, 0.007948146, -0.54810905, -0.18011074, 0.42254278, -0.17076752, 0.6409093}, 
{-0.6433867, 0.56941164, 0.57086897, -0.2587041, 0.58039314, -0.23285486, 0.59110194, -0.14496243, -0.5377735, 0.21346755, -0.19053826, 0.2617616, 0.59117144, -0.29689777, -0.08870274, -0.50391084, -0.84265745, -0.14580877, -0.7386964, 0.43560192, 0.18814123, 0.5821025, 0.4413682, 0.5393948, 0.47664434, -0.7689836, 0.6215547, 0.35054958, -0.2098548, -0.43469214, 0.5471396, -0.5202774}, 
{0.024632726, 0.017102143, -0.33346105, 0.24939224, 0.034635495, -0.016639834, -0.09306024, 0.3304978, -0.21479425, -0.08902267, -0.2654533, -0.2552942, -0.26966274, -0.22767489, -0.17791694, -0.20637707, -0.0007960907, -0.048427396, -0.23805735, 0.08518145, -0.078328885, 0.048096195, 0.1699068, -0.093128525, -0.011548971, 0.06933448, -0.057590257, -0.6764088, -0.5872088, -0.4507496, 0.27622774, 0.23515743}, 
{0.3304363, -0.2537795, -0.2900701, 0.030706162, 0.2586847, 0.49588737, -0.09842874, 0.36184242, 0.2885747, -0.3389693, 0.08451445, -0.038979203, -0.53899133, -0.14469978, -0.09897048, 0.063089475, 0.4827832, -0.052546296, 0.24872318, 0.06523216, -0.15790711, -0.10518979, 0.12123065, -0.16392908, 0.1319027, 0.2964781, -0.4274854, -0.4717938, 0.009849758, -0.0016215476, 0.38367182, 0.4381225}, 
{0.21774453, -0.15689573, -0.21972218, 0.35946968, 0.07337082, 0.19011346, -0.06019933, 0.28059986, 0.11512204, -0.4125858, 0.10335789, 0.22530214, -0.46276227, 0.36176184, 0.10552234, 0.12320369, 0.346925, -0.10575676, 0.23543929, 0.12522303, 0.02841176, -0.22924772, 0.1127056, -0.048503645, 0.5255599, 0.23735242, -0.0020072805, -0.4229708, 0.41580695, -0.15764213, 0.15087539, 0.26526317}, 
{0.2558522, 0.12751621, -0.11679209, 0.09373999, 0.012428853, 0.33876827, -0.06289728, 0.14594871, 0.48722556, -0.076607496, 0.26026455, -0.25543666, -0.23779908, 0.39324027, -0.10121318, 0.2953671, 0.117205836, -0.19508201, 0.3887449, 0.0019199115, 0.36511996, -0.16196515, -0.10598129, -0.37858438, 0.24753593, 0.24295464, -0.17213137, -0.52432007, 0.52836907, 0.5324933, 0.2477788, 0.1106641}, 
{0.15821461, 0.3403142, 0.1593976, -0.0036559526, 0.2751595, 0.15423374, -0.22983639, -0.18015623, 0.36653367, -0.21632552, -0.19380534, -0.38822758, 0.107566, 0.24380015, 0.42969152, -0.635596, 0.21848395, -0.11488247, -0.0241029, 0.49714404, 0.4190767, 0.10906687, 0.34490052, 0.09575411, -0.2040236, -0.3600215, 0.12528561, -0.039554343, 0.36357, 0.22840628, -0.451968, -0.024550429}, 
{0.20259826, -0.0006277175, -0.22894922, 0.20428303, 0.16289203, 0.14010169, 0.04598357, -0.2193448, -0.4035309, 0.06828191, -0.08905812, -0.08455037, -0.18898834, 0.2903827, 0.107259, -0.3057357, 0.03247036, 0.06800155, -0.027433066, 0.26831782, 0.15504386, 0.14261024, 0.26259348, 0.0016715792, 0.15083802, -0.20805854, -0.005506851, 0.07120533, 0.12416215, 0.032898225, 0.20314722, 0.37932596}, 
{0.16503742, -0.32037294, 0.32212034, 0.25969905, 0.18597159, 0.5068533, -0.1733201, -0.25496453, -0.38749942, 0.19440874, -0.48857206, -0.22976622, -0.3530023, 0.032336414, -0.4448728, -0.055854782, 0.16347389, -0.060248163, 0.05232783, 0.1409597, -0.3112109, -0.038676936, 0.085219, 0.28967658, 0.039900154, -0.36900055, -0.3227523, 0.012250014, -0.2862423, 0.4910865, 0.23487632, 0.21322986}, 
{-0.3447949, -0.4625097, 0.4061875, -0.03863289, -0.2810351, 0.7059592, -0.28255424, -0.29370484, -0.2663895, -0.058907825, 0.09977045, -0.022509463, -0.34774914, -0.39964935, -0.34076947, -0.34991688, 0.10951115, -0.8373508, 0.3161816, -0.018649595, -0.61425, -0.030687906, -0.23607837, 0.2554197, 0.22397493, -0.10666509, -0.42248413, -0.17355862, -0.38006908, 0.3869268, 0.43466154, 0.17299402}, 
{-0.27294296, -0.11974768, -0.5041631, -0.79824567, 0.26276886, -0.6401101, -0.62087923, 0.538709, 0.8396226, -0.08332455, -0.19729726, 0.3126251, 0.7559944, -0.70586973, -0.27285066, 0.50753814, -0.6572381, -0.45878953, -0.31396094, -0.7268912, 0.7824315, 0.30944338, 0.14224409, 0.06176244, -0.45137972, 0.74121296, 0.5506132, -0.63493603, 0.12097513, 0.4987446, 0.11432045, -0.15296465}, 
{-0.20871408, 0.9004556, 0.3460164, -0.16761214, 0.5040069, -0.38994077, 0.6083807, -0.20717499, -0.030475792, 0.30761018, -0.07018767, 0.4940002, 0.7952238, -0.45695093, -0.3615238, -0.06100237, -0.48553243, 0.023617653, -0.7214325, 0.10388704, 0.7020372, 0.6419498, 0.05618086, 0.21414922, 0.24087659, -0.33110222, 0.48994502, 0.5199923, 0.39369056, -0.21919578, 0.42085132, -0.45989}, 
{0.17091398, 0.10541662, -0.21465628, 0.34821677, -0.11325445, 0.17859246, 0.3402198, -0.1371121, -0.22486791, -0.03687423, 0.12120704, 0.15655695, -0.5468101, -0.16191156, -0.09286189, 0.5652141, -0.268418, -0.42796797, -0.26586258, -0.11321246, 0.20542665, -0.19492026, 0.0739145, -0.04121709, 0.20186746, -0.2662208, -0.029604722, -0.043170776, -0.7647201, -0.24243423, -0.115089685, 0.21477373}, 
{0.35124704, -0.01194938, 0.088605694, 0.41592646, -0.13938545, 0.359061, -0.050461326, 0.18907109, -0.11669437, 0.20581067, 0.29273233, 0.09566781, -0.6170031, -0.21312587, -0.36991152, 0.4796093, 0.076565035, -0.24646291, 0.19833763, -0.14583382, -0.33336443, -0.21707264, 0.102390274, -0.14172903, 0.27610245, -0.29502967, 0.1418186, 0.2100215, -0.60384196, -0.58385736, 0.15478055, 0.00020232497}, 
{0.14305805, -0.25502098, -0.272561, 0.19780582, -0.09909856, 0.4004015, 0.066959925, 0.3536183, -0.11447883, 0.14915513, 0.18542835, 0.19911651, -0.35679737, 0.53195775, 0.109922335, 0.3560796, -0.011737709, 0.19026843, 0.09044999, 0.21711068, -0.31695092, -0.08208451, -0.23786643, -0.21698977, 0.09943687, 0.106148496, -0.12072663, 0.22924371, -0.21168417, -0.046390407, -0.13849024, 0.012789835}, 
{0.31536263, 0.118718214, 0.3196723, -0.22820912, -0.032006014, 0.20024326, -0.3133513, -0.22990444, 0.3798058, 0.28802577, 0.2500767, 0.3089617, 0.13176058, 0.18134657, 0.2012232, -0.047986154, 0.073041715, 0.4605949, 0.34923506, 0.2123279, -0.16515647, 0.36542147, -0.060766846, 0.0461243, -0.36753768, 0.096425585, 0.28558, -0.026687311, 0.33054346, 0.36742818, -0.46478137, 0.16350166}, 
{0.29764926, 0.27635282, 0.10575968, 0.030999381, 0.16745752, 0.26786464, -0.41593033, -0.26635697, 0.13292779, 0.0038986136, 0.11650489, -0.012341996, 0.29244024, 0.22228774, 0.33333004, -0.62624025, 0.28723678, 0.052255847, -0.20170698, 0.19149789, 0.041793514, 0.380713, 0.31829837, 0.05100003, 0.04218703, -0.37655723, 0.20625274, 0.004306615, 0.18054096, 0.14502871, -0.36419055, -0.14700656}, 
{0.062357225, -0.10506334, -0.10652841, 0.44190088, 0.24550009, 0.03834656, 0.34603277, 0.299409, -0.20317665, 0.24652286, 0.29258418, -0.06277631, 0.124479756, 0.53956276, -0.08216268, 0.3068134, 0.28114724, -0.11273634, 0.031642105, 0.36428145, 0.27260998, 0.41412008, 0.22870547, 0.28635788, 0.38374418, -0.34674603, 0.36882386, -0.13228688, -0.1581591, -0.18024406, -0.46078202, 0.24694677}, 
{-0.34660867, -0.17302242, -0.20944938, 0.15828878, 0.028799172, 0.0505232, -0.078004576, 0.03757789, -0.18500462, 0.06320168, 0.2775381, 0.27365074, -0.031775743, 0.3919163, -0.5566129, -0.0067477175, -0.034889337, 0.16732413, 0.11986361, 0.29989085, 0.34617692, -0.2265291, 0.021193588, 0.30825585, 0.32970995, -0.14718646, 0.2085807, -0.11183735, -0.042772193, -0.36946493, 0.3052903, 0.23079485}, 
{-0.1680064, -0.6887534, -0.16561213, 0.21809602, -0.07251587, 0.3698059, 0.033480924, 0.2423681, -0.14205241, 0.28519848, 0.1011721, -0.0026243865, -0.27041632, -0.3822975, -0.4203646, 0.17461711, -0.5025167, 0.4559589, 0.17840965, 0.06768467, -0.15459631, -0.18560359, -0.14394471, 0.3789549, 0.22379962, 0.38025773, 0.06814953, -0.31274715, 0.39704055, -0.33899468, 0.23732321, -0.20440225}, 
{-0.072641134, -0.2625029, -0.29615563, -0.7647056, 0.21309067, -0.13175327, -0.72555256, -0.3806112, 0.008707778, 0.48881513, 0.114922896, 0.5536448, 0.4051431, -0.75582945, -0.6983407, 0.40059778, -0.18988939, -0.7149079, -0.9496405, -0.31963575, -0.087594636, 0.36615488, -0.26676458, 0.4753609, -0.095874205, -0.0069692633, 0.6667964, 0.12471093, -0.023067018, 0.33338907, -0.20369263, -0.9879195}, 
{-0.017074097, 0.57284224, -0.09486963, -0.03743835, -0.04091711, -0.88924694, 0.5168385, 0.551926, 0.7086795, -0.5027163, -0.037589725, -0.15228729, 0.8410021, -0.34552497, 0.20049728, 0.39559147, -0.37771678, 1.0327562, -0.2898327, -0.07602486, 0.98500806, -0.58158153, 0.23885308, -0.30043027, 0.2175583, 0.56435144, 0.5515744, -0.59867865, 0.63343906, -0.29221025, -0.20952229, 0.50054526}, 
{-0.1571499, 0.19205934, -0.057277426, -0.19861369, -0.10760946, -0.49669945, 0.55863076, 0.084124126, -0.14581507, -0.02521955, -0.13976839, 0.38413316, 0.2809077, -0.28409687, -0.21491781, 0.62404704, -0.38017967, -0.27267018, -0.38782725, 0.22523494, 0.32944116, 0.02253728, -0.5206604, -0.21423075, 0.20132361, -0.27402022, 0.4742047, 0.2984197, 0.014552426, 0.025233818, -0.23672459, -0.014418108}, 
{-0.004549344, 0.074121326, -0.32487828, 0.3530122, 0.13810138, 0.1659641, -0.113046564, -0.07060089, -0.21706054, 0.044618625, 0.46143195, 0.02848397, 0.2799486, -0.69534975, -0.22552142, 0.36058077, -0.09037023, -0.6786801, 0.1454969, 0.019618807, 0.32628924, 0.06771838, -0.38399616, -0.08625688, 0.18428913, -0.16272026, 0.013598724, 0.26393247, -0.48724172, 0.20586307, -0.23979239, 0.12205305}, 
{-0.15578282, -0.6986376, 0.28097147, 0.098020665, 0.22371742, 0.3878938, -0.11275464, -0.058186922, -0.22001477, 0.282649, 0.19756165, -0.027336823, -0.10678226, -0.22128515, -0.17646235, 0.0002555115, 0.30579004, -0.61726516, 0.42251608, -0.034541193, -0.30412364, 0.1087323, -0.004521217, 0.26660967, -0.105208494, -0.002030813, -0.30188093, 0.014459064, -0.7083292, 0.48375252, -0.17930765, -0.08180547}, 
{-0.028098896, -0.2143219, 0.074384876, -0.04173345, 0.21894494, 0.3474709, -0.21635187, -0.36939716, 0.40692115, 0.34013104, 0.3359771, 0.21332476, 0.39291814, -0.1091059, 0.34710553, -0.2715403, 0.2569487, -0.5901365, -0.24151134, 0.15852138, -0.17507419, 0.10863337, -0.06835772, 0.21681343, -0.06359664, -0.024463063, 0.108879484, 0.10294636, -0.84249115, 0.08697876, -0.3331046, -0.15471844}, 
{0.07186276, -0.03728237, -0.13308734, 0.37026975, 0.19958581, -0.012210464, -0.13830194, -0.0055448315, 0.296737, 0.24019808, 0.16830945, 0.2923684, 0.24697371, 0.37414005, 0.0418489, 0.28430256, 0.1000489, -0.26285422, -0.048431963, 0.2337599, 0.26029027, 0.41367188, 0.37168413, 0.20096894, 0.1280576, -0.5148048, 0.45109922, -0.1636038, -0.28941035, -0.22827609, 0.23698315, -0.041400418}, 
{-0.14034824, 0.1260132, -0.09520552, 0.29067034, 0.09087265, -0.06708869, 0.4387076, 0.030412056, -0.013304341, 0.3457859, 0.521486, 0.046200138, -0.25549328, 0.004511493, -0.5587086, 0.14889388, 0.0061867465, 0.23325232, 0.21359482, 0.086823046, 0.08885556, -0.14583455, 0.1159798, 0.1591952, -0.061516404, -0.035308555, 0.33872136, -0.38622695, -0.12267195, 0.067142576, -0.010737944, 0.08052247}, 
{-0.21956497, 0.11460843, 0.067998916, 0.2293151, 0.24248289, 0.2258928, 0.10672328, -0.13832088, -0.1553545, 0.17932396, 0.2207915, 0.24651687, 0.01063411, -0.42117712, -0.33370098, -0.0155549375, -0.075227484, 0.28628618, 0.03420568, 0.23518828, 0.089241765, -0.09660434, 0.09759204, 0.009316523, 0.21404667, 0.2808283, 0.39856547, -0.5705902, 0.34844932, -0.06465691, 0.2112368, 0.23509264}, 
{-0.19143923, 0.3655644, -0.17049667, -0.13693321, 0.39742362, -0.09722943, -0.016920697, 0.13858195, -0.036703825, 0.20950025, 0.13288167, 0.07871137, -0.009517378, -0.43387008, -0.25219926, 0.33477625, -0.32334444, 0.34878516, -0.17982394, -0.0759185, -0.1858658, 0.18173416, -0.15223145, 0.35835335, -0.12171382, 0.15497543, 0.14367622, -0.23157635, 0.41321594, 0.245598, 0.2466536, -0.3840981}, 
{-0.33617598, -0.2869676, 0.14935204, -0.32537076, 0.37116298, -0.59075177, -0.17044878, -0.75808984, -0.29547304, 0.41086006, 0.158021, 0.60504293, 0.63921535, -0.56196296, -0.19187768, -0.0031645172, -0.122620694, -0.6101571, -0.6067416, -0.13673748, -0.42294484, 0.44152334, -0.3782235, 0.5585531, 0.0023496647, -0.6044321, 0.48841664, 0.4152101, -0.73696053, -0.25016528, -0.071561396, -0.870972}, 
{-0.11747848, 0.44292015, -0.45330432, -0.14856324, 0.091219746, -0.6783898, 0.25347227, 0.5445276, 0.8638927, -0.45584446, 0.19403918, -0.028869497, 0.9391014, -0.374926, -0.10829961, 0.83109564, -0.50583774, 0.5674069, -0.31764472, 0.1129276, 0.88995546, -0.25611946, -0.13194008, -0.32502535, -0.031041777, 0.48963, 0.32238513, -0.29391682, 0.29837093, -0.20980537, -0.37939093, 0.325091}, 
{-0.20954333, 0.029953932, -0.1269579, 0.1434181, -0.11239227, -0.16788825, 0.33543596, -0.055400994, -0.24147049, 0.18788485, 0.10794491, 0.35813984, 0.23576422, 0.2485962, -0.0869225, 0.30926538, -0.11580814, 0.36740336, 0.016733477, 0.21386436, 0.11170704, 0.3566762, -0.2942383, 0.022903653, -0.1535249, -0.2108708, 0.04482389, 0.4610475, 0.3221096, -0.2063598, -0.33948, -0.18941295}, 
{-0.3280241, -0.026291568, 0.24215893, -0.16707078, -0.037054267, -0.21450494, 0.19126898, 0.020676367, 0.22294943, 0.060464818, -0.20735478, 0.09826612, 0.09659413, -0.5878249, -0.0021349897, 0.40275022, 0.18959285, -0.3047823, 0.33439553, 0.24890606, 0.2540549, 0.32012862, -0.25051403, 0.14799881, -0.16626777, 0.012032369, 0.18394594, 0.35208133, 0.20144348, 0.32701638, -0.25678146, 0.11259254}, 
{-0.5869768, -0.09471373, 0.11137049, 0.02923329, 0.0011281458, 0.027445609, -0.0331801, 0.20263243, 0.27635553, 0.15980394, 0.3757341, 0.27973026, 0.36151144, -0.42520273, 0.069689825, 0.27681538, -0.1751328, -0.1717675, 0.29564986, 0.13924895, -0.041488335, 0.18263513, -0.3127586, -0.012926833, -0.20228684, 0.21413063, 0.023551181, 0.20934364, 0.27316874, 0.29143262, 0.01331592, -0.051448356}, 
{-0.21600775, -0.018700028, 0.3443092, 0.05452511, 0.037275683, 0.14259206, 0.30481738, 0.16151114, 0.35412076, 0.27762216, 0.27150273, 0.44561893, 0.32951432, -0.1259519, 0.13818139, 0.26258305, 0.039498527, -0.31651217, 0.5597758, 0.046846386, -0.06584357, -0.08745224, -0.29474768, 0.27699608, 0.1922969, -0.014892206, -0.09765044, 0.08164201, -0.21698084, 0.09309919, 0.34956872, -0.18936372}, 
{-0.2580891, 0.39196533, 0.35095796, -0.035788022, 0.23493582, 0.2690811, 0.19077235, 0.35361457, 0.36183652, 0.23061666, 0.27826893, 0.10189051, 0.0185711, 0.09717614, -0.40098754, 0.047824584, 0.3231651, 0.03437558, 0.097743064, 0.26403755, 0.21288566, 0.047276035, -0.23156235, -0.03659787, 0.024690347, -0.022332981, 0.07231729, -0.15149425, -0.1379462, 0.24625802, 0.49544948, 0.23347409}, 
{-0.014555638, 0.5535565, 0.08338747, -0.023029795, 0.28122908, 0.33366808, 0.03554095, 0.21513027, 0.0981014, -0.014741647, 0.06123198, 0.31540844, -0.13785616, -0.14364102, -0.68590826, -0.14117621, 0.08366965, 0.16802919, 0.17721735, 0.18523455, 0.12428016, -0.08154284, -0.2725459, -0.08282824, -0.39257863, 0.004403919, 0.27628487, -0.18663299, -0.07919506, 0.09796118, 0.3113854, -0.08135872}, 
{-0.04705052, 0.28839758, 0.049083117, -0.2988818, 0.33060652, 0.2613593, -0.26018167, -0.10648487, 0.14381203, 0.24322702, -0.10892763, 0.11032327, -0.20939575, -0.5409776, -0.4374888, 0.018051926, -0.01460266, 0.43415332, 0.15247951, 0.0036628402, -0.18624383, 0.06996426, -0.55671424, 0.27154064, -0.36943787, 0.32874832, 0.33151138, 0.18719041, 0.21148665, 0.020824077, -0.10045509, 0.19733788}, 
{0.19256108, 0.06196325, -0.02796419, -0.44720006, 0.3850521, -0.49423063, -0.11210847, 0.020819126, 0.062547304, 0.34777412, -0.23174356, 0.34327433, -0.04803586, -0.3887198, -0.024994202, 0.21552494, -0.081276305, 0.30918837, -0.01108079, -0.13621588, -0.31489685, 0.068188764, -0.4577777, -0.07912848, -0.37449098, 0.17439723, 0.27521122, 0.26385957, -0.2963974, 0.11178737, -0.22364478, 0.080390915}, 
{-0.62671983, -0.0026927204, -0.15280898, -0.17842449, 0.49865052, -0.5722338, -0.42263815, -0.31334293, -0.2770744, 0.08202218, 0.4200062, 0.40791234, 0.42151842, -0.6135188, 0.10314734, -0.03777416, 0.0676047, -0.25109643, -0.3612364, 0.019211294, -0.42912212, 0.22357827, -0.016432209, 0.52946246, -0.57179314, -0.25148207, 0.41054335, 0.53245175, -0.47391483, -0.21422212, -0.07430309, -0.34654054}, 
{0.029561749, 0.38270456, -0.43147773, -0.2331546, -0.0077676545, -0.70132834, 0.5673674, 0.7910975, 0.7294255, -0.5908183, -0.13890776, 0.14203103, 0.7593027, 0.15781467, 0.28812227, 0.45204115, -0.20132598, 1.025895, -0.2782762, 0.19549643, 0.95375365, -0.54318565, 0.116206735, -0.7351125, 0.020768665, 0.22135508, 0.23157372, -0.30794755, 0.15447584, -0.23725653, -0.21469651, 0.293657}, 
{-0.3752425, 0.3503992, 0.12757483, -0.14513429, 0.06940272, -0.34962732, 0.22010075, -0.13095321, 0.21899547, 0.1171564, -0.093774766, 0.122779585, 0.3004151, 0.29574215, -0.028210618, -0.09317147, -0.19909666, 0.74333763, -0.30003718, 0.007188024, 0.24814014, 0.15160005, -0.008446246, -0.1473165, -0.23289631, 0.05870479, 0.15473606, 0.30854297, 0.4059294, -0.109574206, -0.27371743, -0.02832475}, 
{-0.12480857, 0.15212373, 0.17384848, -0.13234447, -0.010442359, -0.06274906, 0.16369416, -0.32293496, -0.1658751, 0.015769035, -0.34554544, -0.11753315, 0.06225268, 0.45525077, 0.17976843, -0.022432173, -0.019874195, 0.45612413, -0.100578025, 0.048140537, -0.03908315, 0.4280258, 0.18366314, 0.31765822, 0.09010194, 0.15194836, 0.05583619, 0.15951602, 0.1552586, -0.17278144, -0.14791684, -0.27706423}, 
{0.21136215, -0.014156033, 0.14801475, -0.07186492, -0.0066277697, 0.13068576, 0.20770073, -0.009596072, 0.12963666, 0.16444127, -0.28212497, -0.1335845, 0.035569716, 0.070218615, 0.05707383, 0.27458948, 0.07944492, 0.3337402, 0.36407402, 0.31681165, 0.059118595, 0.4322883, 0.010626687, 0.25636908, 0.1841265, 0.24429294, -0.008780072, 0.28243533, 0.036001913, 0.14237325, -0.010627369, 0.14764166}, 
{0.24702235, 0.15336503, 0.08432446, 0.16095914, 0.37951428, 0.03803785, -0.013552633, 0.008336449, -0.02171033, 0.0709668, -0.4646223, -0.0039995965, 0.23526804, -0.14358287, -0.038414508, 0.38299578, -0.15053287, 0.26194277, 0.54321516, 0.20635265, -0.16469191, -0.12113142, 0.14701875, 0.06276632, 0.44056234, 0.44814944, -0.02319492, 0.24023306, 0.066563986, 0.4374866, 0.082816646, 0.2031073}, 
{0.31463623, 0.1607685, 0.094630085, -0.03815655, 0.278618, 0.2942805, 0.050520238, 0.4604472, 0.1360476, -0.14113337, -0.42688227, -0.049454167, -0.04484468, -0.26560128, -0.17759429, 0.08045247, 0.18864584, 0.008017205, 0.25818726, -0.011276224, -0.05525704, 0.1559273, -0.09208319, 0.04689109, 0.44062015, 0.4832627, -0.1482804, 0.20570269, -0.0906474, 0.08472547, 0.2041194, 0.24983707}, 
{0.20093505, 0.4358115, 0.067779824, 0.1352921, 0.01597758, -0.08840652, 0.025839133, 0.14453828, 0.2067544, 0.2805108, -0.21380419, 0.08436747, -0.01113785, 0.075546175, -0.64140713, 0.059211355, 0.26024053, -0.037352126, -0.018056424, 0.058394406, -0.019290268, 0.12635662, 0.059483178, -0.034035407, 0.028119199, 0.36989242, 0.22017182, -0.061836593, -0.0074752388, 0.049396154, 0.037265725, 0.017314253}, 
{0.3834308, 0.11414207, -0.2134891, 0.004868797, 0.05133938, 0.16344213, -0.32751653, 0.1558765, 0.17880619, 0.44152656, -0.19205494, 0.21929255, -0.089957476, -0.2637972, -0.34167397, 0.36445853, 0.14282638, 0.13000831, -0.14599009, -0.07593396, -0.4903926, 0.13119835, 0.086072266, -0.069576226, -0.31075922, -0.062145296, 0.4825013, -0.031507578, -0.41362822, -0.16499493, -0.25261566, 0.28944564}, 
{0.29394457, 0.22906691, -0.2629396, -0.12593912, 0.055281084, -0.29275408, -0.11725364, 0.19190605, -0.2830365, 0.1365541, -0.38024044, 0.42919156, -0.21347341, -0.29167882, 0.21219811, 0.56842405, 0.004624417, 0.17272687, -0.35335225, 0.064765014, -0.6302102, 0.27285674, 0.0016648168, -0.117261976, -0.32464364, -0.044312514, 0.07867277, -0.054980695, -0.66752225, -0.15858713, -0.3808111, 0.62333375}, 
{-0.4048792, 0.3978917, -0.09625691, -0.5218451, 0.010763634, -0.4223605, -0.25346723, -0.07281516, -0.0028367287, 0.13462567, 0.19779186, 0.37282717, 0.45633578, -0.46133527, 0.13765019, 0.37982845, 0.118156046, -0.32695067, -0.70813, -0.39242393, -0.7037311, 0.4269163, -0.21190754, 0.114268154, -0.20783679, -0.38554633, 0.32874256, 0.28936782, -0.45518145, -0.005329613, -0.35349497, -0.5459364}, 
{-0.084066436, 0.577469, 0.24119489, 0.08544105, -0.024220167, -0.13715285, 0.6839427, -0.17184292, -0.33798805, -0.3939237, -0.39444947, -0.3889456, -0.06855891, 0.5148467, 0.29893675, -0.29112735, -0.2995448, 0.9747065, -0.30889347, 0.24762726, 0.46921042, -0.14102632, 0.100454554, -0.1361766, -0.28328076, 0.12142804, 0.217758, 0.31263185, 0.40893105, -0.3274224, 0.34564775, 0.08831789}, 
{-0.04375889, 0.011332096, -0.18645528, 0.535825, 0.081901, -0.19716401, 0.46918488, -0.032817252, -0.2855966, -0.04078059, -0.21003559, -0.6433788, -0.31126046, 0.42478892, 0.40399453, -0.0134291435, -0.30931112, 0.8233372, -0.35295042, 0.6291247, 0.26225495, -0.28386858, 0.23057084, 0.019627506, 0.21182434, -0.37478423, -0.06424813, -0.2392667, 0.22329028, -0.48985296, 0.01056751, 0.29710874}, 
{0.1468833, 0.29433554, 0.12557884, 0.29154453, 0.22483087, -0.00886683, 0.6458227, -0.24238789, -0.50873035, -0.18445009, -0.5159333, -0.50315976, 0.03642712, 0.24427018, 0.20559968, -0.27913576, -0.17484672, 0.79207504, -0.30190966, 0.5142195, 0.47423404, -0.24170429, 0.46898112, -0.06547778, -0.30635262, -0.30392137, 0.096772544, -0.109222, 0.35355017, -0.31149817, 0.47440717, 0.25713304}, 
{0.1574668, 0.2563622, 0.33336058, 0.26685652, 0.16216762, -0.39949152, 0.74083704, -0.011756976, -0.5281838, -0.17556173, -0.774627, -0.6839939, 0.0870862, 0.2780176, 0.37048316, -0.22072935, -0.19553342, 0.7953259, -0.23096408, 0.14967854, 0.69467056, -0.22033875, 0.22650138, 0.08923133, -0.110101014, 0.00959049, 0.30447727, 0.0034690122, 0.42717543, -0.3434628, 0.17494437, 0.1223857}, 
{-0.06791534, 0.09274209, 0.24189717, -0.08704192, 0.14485428, -0.5606994, 0.66275424, 0.13170397, -0.43750942, -0.14535072, -0.5625695, -0.2881967, 0.3017233, -0.05821677, 0.25725648, -0.09198992, -0.22205977, 0.70307374, -0.06663052, 0.02983862, 0.51967704, 0.030877624, 0.44744566, 0.014124954, -0.23482111, 0.138363, 0.120040014, 0.0072799576, 0.33489817, -0.30776417, -0.11037422, 0.41134974}, 
{-0.048501, -0.16963124, -0.03384977, -0.16388854, 0.09965415, -0.48669654, 0.761837, -0.082673766, -0.41049665, -0.1002109, -0.32962376, -0.14574888, 0.16471012, 0.029896986, 0.29426265, 0.041299146, 0.08916948, 0.66105545, -0.07897621, 0.042119116, 0.0798786, -0.22078991, 0.43417227, -0.045112055, 0.016528184, 0.25665, -0.07165359, -0.0007335794, 0.10181336, -0.12733638, -0.21608312, 0.2059426}, 
{0.14266647, -0.47055933, 0.3488621, -0.40113333, 0.47873738, -0.3433586, 0.70865726, 0.06770023, -0.30822235, -0.43137524, -0.25230277, -0.48185155, 0.058489252, 0.052085415, 0.2598432, 0.06696511, 0.14031875, 0.33703706, -0.20736437, 0.10742348, 0.041671306, -0.08945295, 0.299412, 0.081011906, -0.39728928, 0.19271041, -0.48395273, -0.26396918, -0.15542708, -0.0044386387, 0.16892153, 0.42242754}, 
{0.3235589, -0.09277547, -0.082438156, 0.042187326, 0.19182909, -0.22513002, 0.5268596, 0.10743082, -0.52168894, -0.24997666, -0.2733532, -0.656579, -0.23989214, 0.27349976, 0.2537486, 0.05883707, 0.027229331, 0.14457466, -0.2725519, 0.13703263, -0.24000625, -0.43083608, 0.4153421, -0.2792069, -0.33633444, 0.3304088, -0.50123084, -0.7200183, -0.43440354, -0.49270782, -0.22426857, 0.46527448}, 
{0.030693077, 0.47952643, -0.3314196, 0.18934938, 0.109990776, -0.48658466, 0.2636392, 0.52200073, 0.32508093, -0.5424897, -0.2441891, -0.27126166, -0.5854907, 0.21933678, 0.30509117, 0.11418982, 0.03253821, 0.41260156, 0.022484675, -0.30350462, -0.13325134, -0.14994036, 0.086219154, -0.3460919, 0.1365261, 0.09417806, -0.40990242, -0.5505724, -0.3216184, 0.06193062, -0.2327749, 0.52456164}, 
{-0.14821388, 0.13362715, -0.24087092, -0.14324902, -0.00046954345, -0.18936822, 0.0758849, -0.41348484, -0.086526856, 0.37444925, 0.052197654, 0.12918797, -0.25851062, 0.35662577, 0.24572074, 0.35667288, 0.017401282, -0.3680607, -0.35445103, -0.22233897, -0.21381943, 0.088605314, 0.039636128, 0.2217208, -0.18140174, -0.40151456, 0.35651955, 0.11255691, -0.18260078, -0.1528121, -0.16625738, -0.008613607}}