{{0.30177355, 0.39377052, -0.46152684, -0.26625955, 0.6103625, -0.6430251, 0.30208895, 0.2431648, 0.4682327, -0.12813662, 0.11449352, -0.023605648, 0.59937257, 0.30959052, -0.37333488, -0.6721566}, 
{0.022596247, 0.5050312, 0.63630503, 0.19691537, -0.41341296, -0.79902613, -0.35088244, 0.14795671, 0.46462977, 0.27970487, -0.12407848, 0.21350643, 0.60442567, 0.3309573, -0.5805858, -0.15006243}, 
{-0.24335071, 0.1644188, 0.47747314, 0.43362415, -0.43189368, 0.5442639, 0.15017799, 0.51970464, -0.0280556, 0.31815165, 0.37591258, 0.47229862, 0.09804093, -0.27938738, -0.31466988, 0.64808613}, 
{0.26815763, -0.09796756, -0.055889405, -0.10425135, 0.45585534, 0.5431319, -0.019180117, -0.106204614, -0.068368725, -0.47165522, -0.015644226, -0.24658369, -0.18246676, 0.38679922, -0.06043348, -0.5990831}, 
{0.42013758, 0.18553418, 0.46874115, 0.1663228, 0.57754374, 0.35327125, 0.25327712, 0.13016263, 0.50553286, 0.29840273, -0.49891376, 0.22964266, 0.44299728, 0.035627026, 0.49782753, 0.32024285}, 
{0.16388619, -0.064688936, -0.005669126, -0.06164017, 0.04434348, 0.41298836, 0.14932115, -0.24352725, -0.069924206, -0.59367377, -0.48649082, -0.29829162, -0.047930393, 0.62182826, -0.7249344, 0.36659843}, 
{0.05234728, -0.22037233, 0.36048427, 0.21258338, -0.4484734, 0.23327288, 0.3590175, 0.70298916, -0.65979946, -0.34922898, 0.46454647, 0.32031336, -0.39995122, -0.15613334, 0.71417975, -0.4013391}, 
{-0.12961596, -0.117395766, -0.032504544, 0.32465842, 0.530395, -0.07433139, -0.51313245, -0.4482366, -0.029095802, -0.14880262, -0.175427, 0.43630332, 0.43895173, 0.103668995, 0.40396678, -0.05291174}, 
{-0.17582577, 0.12933202, -0.18122411, 0.58763385, -0.18553258, -0.6402333, -0.5314035, -0.7070463, 0.075750664, 0.2401751, 0.42457634, 0.009876465, 0.43739587, 0.13871735, -0.075165406, 0.40525043}, 
{0.4096947, 0.03436117, -0.2815578, -0.102103494, -0.50110656, -0.42875794, 0.15137969, 0.39142188, 0.39980355, 0.19573945, -0.045315165, -0.060305, -0.5438763, 0.61767477, -0.3441714, 0.04631251}, 
{0.6541093, -0.38991857, -0.01871519, 0.07832507, -0.7590635, -0.22776766, -0.7117505, -0.38221264, -0.53692675, -0.42317942, 0.18188907, 0.109139524, -0.7329515, 0.6896421, 0.13656788, 0.011837883}, 
{0.64507365, -0.06988005, -0.39673677, -0.13153736, -0.41555458, -0.366303, -0.7147968, -0.27712917, 0.007839446, 0.2161227, -0.21599992, 0.0012493262, -0.20457411, 0.46245944, 0.14208454, 0.21886931}, 
{-0.31225234, 0.4700532, 0.59667224, 0.26968268, -0.05057392, -0.45425075, -0.16586725, -0.1229966, 0.10585199, 0.7045907, 0.35285622, 0.049044922, 0.60360545, 0.17450057, 0.6162801, 0.12889801}, 
{0.4194735, -0.86588883, 0.73169523, -0.24632919, 0.41830552, 0.6136968, -0.57670707, -0.1246457, -0.27254587, -0.7220633, 0.90332747, -0.40160805, -0.31627035, 0.35028064, -0.3146654, -0.29106694}, 
{-0.08789321, -0.47795904, 0.13561133, -0.030807551, 0.86875546, 0.27963856, 0.2784611, -0.6586577, 0.042288978, -0.5026795, 0.9435301, -0.5958391, 0.37863278, -0.73108035, -0.0480984, 0.23424652}, 
{0.30222884, 0.17174678, -0.6615209, -0.24941884, 0.10693857, 0.08061955, -0.40438607, 0.31920636, 0.049012367, -0.18900895, 0.12430159, 0.70819455, -0.3687413, 0.44468477, 0.747902, -0.27529556}, 
{0.58207023, -0.22713044, -0.40928987, 0.25970098, 0.6071568, 0.37167746, -0.13850911, -0.27659968, 0.34053293, 0.120422095, 0.14905035, -0.6210518, 0.3600221, -0.20375554, -0.26949254, 0.45700172}, 
{0.07905104, -0.17820415, 0.45774516, 1.2671918, -0.27036884, -0.8453605, 0.07604483, -0.64148396, -0.75299954, -0.52589124, 0.6686648, 1.0294596, 0.7743268, -0.4742964, 1.015384, -0.29245082}, 
{0.28315532, -0.079994366, -0.42750317, 0.51004696, 0.61448413, 0.48723924, 0.120503485, 0.008218483, 0.42701635, -0.16143224, 0.025884403, 0.55647916, -0.16219673, 0.35128006, -0.12043041, 0.41380683}, 
{0.46864575, 0.1530325, 0.43143398, 0.28485405, 0.4075303, 0.07219387, 0.3097476, 0.433051, 0.35205486, -0.047782082, 0.10996781, 0.11201958, 0.15447065, 0.18561912, -0.0012899151, 0.2880808}, 
{-0.34739912, 0.5154027, 0.60033214, 0.6150378, 0.20669521, -0.36963385, -0.2577868, -0.19059972, -0.4606377, -0.30143797, 0.8614624, 0.36918935, 0.83482736, -0.25929683, 0.42355594, -0.7972675}, 
{0.25243917, 0.27985418, 0.26532924, -0.36926034, -0.19690004, -0.19743621, 0.069537655, 0.54759973, 0.50910354, 0.4885246, 0.18194464, -0.34113905, 0.30315715, 0.23186997, -0.16722025, 0.2809171}, 
{-0.053031653, -0.17849153, 0.40044975, -0.7455795, 0.7120993, 0.038405802, 0.62739146, 0.29931146, -0.068629034, 0.6206547, 0.23739259, -0.13829304, 0.44856927, -0.5526936, 0.39638662, -0.48898202}, 
{0.25100422, 0.2568899, 0.44777283, -0.3970256, 0.16391228, 0.5730046, 0.08011892, 0.11756035, 0.2051111, 0.54296845, -0.2615761, -0.3743539, 0.0829139, 0.40081704, 0.60130405, 0.5701836}, 
{-0.16418864, 0.32217187, 0.1699604, -0.4070836, 0.48288667, 0.28392187, -0.44319233, -0.24905384, -0.060439248, -0.2114843, -0.28395608, -0.42857203, -0.18201125, 0.7044921, 0.22066814, -0.29201546}, 
{-0.49617696, 0.28937563, -0.5786003, 0.3774872, -0.30868512, -0.19030777, 0.18341239, -0.37282008, -0.40029907, -0.036765642, -0.7285752, 0.60280406, -0.05305849, 0.16032977, 0.5876356, 0.37083805}, 
{0.422896, 0.14046337, 0.40036705, 0.083375216, -0.46860054, -0.5768652, -0.09918764, -0.077015035, 0.5552158, 0.35241464, -0.17926201, -0.24488898, 0.2776213, -0.042652864, -0.121912695, -0.20218468}, 
{-0.5255929, 0.67292607, 0.78520876, -0.43173584, -0.37860796, 0.38865203, -0.2966368, 0.30133018, 0.04812694, 0.4558863, 0.28736913, 0.38537258, -0.57450634, -0.17460324, 0.035397645, 0.04498702}, 
{0.20706034, -0.0058154915, 0.19146574, 0.008748956, -0.17580363, -0.31953567, 0.6081408, 0.8535492, 0.80457395, -0.55367875, 0.61647576, 0.38188028, 0.8267216, -0.41910523, -0.5978417, -0.91355807}, 
{-0.2447092, 0.54377246, -0.8707198, 0.38447532, -0.25567466, -0.56112814, -0.03090126, 0.31976134, 0.07143471, 0.17736177, 0.2783078, 0.5215645, 0.43664888, 0.1731723, -0.49540174, 0.7156972}, 
{-0.6718297, 0.06574508, 0.8388556, 0.6629117, -0.42706352, 0.37363353, -0.42354575, -0.24546763, -0.7015284, -0.27900827, 0.06714946, -0.3594541, -0.073581584, -0.12539336, 0.30793914, 0.66935027}, 
{0.26030293, -0.2837173, -0.31301072, 0.120614685, 0.48095822, 0.44655767, 0.67434406, 0.23146047, 0.3300241, -0.3058329, -0.38800144, 0.34265402, 0.5398064, -0.09710783, 0.53042895, -0.09712014}}